weight
0.192020461309518
0.192020461309518
0.17343779761905864
0.12743846726193908
0.1411055803571557
-0.2138206101190434
-0.114785491071423
0.1706203918650786
0.1779746626984462
0.1642831994047782
0.10287800595236263
0.10449586805552258
0.004837514880946969
-0.04962373015873567
0.08744246527778188
0.017191493055541684
0.18392202876982822
0.08044239583333734
-0.09459546626982274
-0.11849818948411439
-0.08031295634923197
-0.030741676587304312
0.03592139384919335
0.059725143849220785
0.135765213293638
0.06730665178572082
-0.05068970734127731
0.011967584325404346
-0.011558000992053508
0.058073249007939864
0.07266846726189158
0.10731027777777058
0.16608266865079457
0.1577147767857099
0.1211668452381005
0.06192279761904018
0.026219146825390283
0.06677301091270493
-0.0014900148809289249
0.03571726190477875
0.08467998511902408
0.042329206349229764
0.05685750000002088
-0.03703693452381884
-0.10426749007937985
-0.10530293650794675
-0.13796891865074912
-0.009661036706368975
0.03744878968250731
0.07353531249997758
0.09845847718255385
0.15908951884922118
0.14586529761905354
0.11630261904763017
0.04092903769840461
0.10189165178576332
0.05208171626983216
-0.0609765178571422
-0.04344214285716674
-0.0025810813492199713
0.013480000000001269
0.026595233134905527
-0.014642013888874317
-0.05011937499999419
0.008964027777778938
0.010326403769838066
0.07085973214290675
0.059931220238098604
-0.10315755456350217
-0.13100532242062712
-0.2942073065476265
-0.3037015178571423
-0.3205049107142983
-0.09985792916668146
0.07887083571428377
0.35753865317458633
0.3043983357142963
0.3073050371031556
0.2376028099206593
0.1566526809523623
0.02664110992063229
0.04947453115080691
-0.03549681805554883
-0.09864843511903842
-0.37992447182539735
-0.4415858656745968
-0.49533060773811144
-0.4745774156746094
-0.27263225198412044
-0.09042889384918595
-0.02144118055554145
0.08083579365077753
0.04068848710316786
-0.08753559027777413
-0.16047270337301
-0.1293948809523897
-0.2637195783729851
-0.11267499503971123
0.4598215873015761
0.7780493799603363
0.6404502777777736
0.32489423611112755
0.24521437003969737
0.240130669642852
0.10696394841268386
-0.02194772817462365
-0.24131308035713062
0.07824441964285
-0.1517746924603003
0.06395604166668534
0.018214330357139374
0.03701823908729551
-0.03597027281747245
-0.0019764583333454766
-0.006295664682539837
0.025604717261892063
-0.04143814484126551
-0.2854817708333215
-0.20932100694444955
-0.10717005952380276
-0.10922470238093496
-0.21618387400793893
-0.4546402430555432
-0.6912337748015815
-0.8429945783730091
-0.3030003025793917
-0.06922795952380767
-0.5075473633928524
-0.29533005798610645
0.7872985233630914
-0.27548266711309566
-0.8016763278273658
-0.6246053258432482
-6.701517032390868
-5.02896750104167
-7.269838181894833
4.224331762450376
3.7851703189979986
2.2931289648313538
1.5846730025297475
1.0340503122519706
0.6553183173115187
-0.29350235119048307
-0.594513740079357
-0.36536249007935595
-0.03912964781747519
0.2357902083333272
0.5097577380952458
0.5374433680555484
0.25271147321426213
0.1775342355599463
0.14348341710756074
0.4218376780202533
0.5359260510361565
0.2962907385361575
0.1685958675044077
-0.17758747574958988
-0.9001141793430492
-0.9222437852733663
-0.7281730015432117
-0.5187087455908141
-0.008063562059078322
-0.07719865630512857
-0.05345080908290356
0.2276377876983986
0.3294583482142741
0.08398060019840159
0.08905893849205881
0.19158928571430067
0.2723675992063477
0.2501079414682579
0.29529415674603854
0.3134594642857138
0.2712415327381166
0.23023306547621303
0.21172506944441238
0.28462746031746633
0.37845862599208147
0.22036867559523898
0.17871226190476364
0.20242475198411114
0.29553133432540335
0.2051642212301772
0.04122104166667384
-0.057462614087285147
-0.0883841716269842
0.0711220833333357
0.04717508432540285
-0.0016877083333355358
-0.008072564484137956
0.1520027628968137
0.2082853472222297
0.1727842708333469
0.010007341269854919
0.08562930555555681
0.09548788194443603
0.019591634233833588
0.03987661935286013
0.04235358859892102
0.040912426982750105
0.09290900436369753
0.12271079999861456
0.14803267003831166
0.10984765782827566
0.13579428214144684
0.27290726825259526
0.24622778187089978
0.08613483769701702
0.003557059919252481
-0.03194632301724454
-0.0470359136002827
-0.07919778363993402
0.02970837211400834
0.13570958829366475
0.07694985615078309
0.03561827876983159
0.0023361061507642944
-0.02218554563492603
-0.03399404265875461
0.002217227182555348
0.12439868551587097
0.189457108134917
0.1654658928571351
0.09572687499998978
0.06517282242063516
0.047470714285701376
0.0762178224206238
0.0954736011904842
0.1155080902777712
0.0728958779761939
-0.20300567956349624
-0.4598303373016037
-0.7181614682539958
-0.8901846031745961
-0.8362175198412771
-0.6672021081349229
0.11526733134921585
2.9280149900793617
3.0625545089285495
3.175853154761896
1.9933743551587
-0.7744731349206333
-1.7699818204365059
-1.5573381597221854
-1.1643600248015744
-0.7341669246031799
-0.3245629464285713
-0.019980094246022873
0.057337529761873895
0.07462985615075013
0.07330644345235271
0.09258662202381629
0.2977330280575572
-0.10590762174402357
-0.4997347050773513
-0.6861388866249598
-1.0930848042837198
-1.4850485642043694
-1.8931851564662807
-5.749127375660713
2.5920963663511927
2.141173593533736
1.7450033405575311
1.2907076659543506
0.8386479933353144
0.4780574030575053
-0.0525590724206495
0.042650297619047706
0.041071741071419865
0.04103621031751459
0.1006291269841526
0.13809934027780457
0.07637335813490154
0.04151199900789493
0.0781179910713945
0.06170947499995805
0.038312560317443456
0.05513660793650388
0.06542922698415055
0.08525818035717947
0.0839729373015885
0.08760902361111533
0.03096000952385225
0.002180943253968337
-0.05100299523808616
-0.04189904682542078
-0.0399019882936642
-0.015383198611125692
-0.011675341468276201
0.010580009920630573
0.015524890873024333
0.017708834325404155
0.026646612103171208
0.04711900049606044
0.0247678100198101
0.04814805803567168
0.024682016369091286
-0.012296753472213595
-0.003704809027802014
0.01079476438491156
0.11156901041665179
0.08861683283727473
0.07323111855159681
0.01582051339286039
-0.0812587227182604
-0.072477542162666
-0.04434640624998565
-0.008342495039691755
0.0019750644840783593
0.0008020486110851266
-0.010082683531791758
0.014267475198394663
0.025396726190464847
0.012127668650791179
0.03622114583336611
0.042751225198415455
0.03768609126985467
0.013429255952367214
0.03869188492060971
0.031242291666664812
0.06182159226189299
0.04224283730159328
0.05120807539685046
0.09467237599208289
0.05342314484128963
-0.02898726686508013
-0.056300823412698264
-0.028059216269852527
-0.003311790674608517
-0.005796731150802259
0.0024692658730174344
0.027347445436511464
0.03960274305556766
-0.010270679563490148
0.02165709325396392
0.059953799603171376
0.018517147817419755
0.039926309523778514
0.03387731150793627
0.030409657738140083
0.02828036210317464
0.012412232142864355
-0.016383105158695344
0.015562167658728754
0.01762351686510044
-0.0012813013889001468
0.054845444642879215
0.022719531944439098
0.011870633134932973
0.010232245238107396
-0.029158389682542918
0.05268700714287888
-0.1137975164682743
0.08680082658728594
0.10642949722219441
0.12644022638887265
0.11195253789681203
0.032306302777755036
0.04532446249999822
0.026338382936522464
0.08237622023811753
0.058066245039704256
0.11250733134924218
-0.09536933531745717
0.10825069444447166
0.07940872519841236
0.05180637896824436
0.0215286061507598
0.010772485119026953
-0.019624280753944845
-0.033284409722242
-0.01819841765877328
0.019505530753974654
0.03879613591273312
0.05316753472224178
0.038356512896825734
0.06130056051586763
0.04156884920637083
0.026793338293650493
0.01860560019839852
0.024876192728186197
0.02715583558531165
0.032989739355151926
0.0369061034424476
0.06459440205352962
0.056772953640873425
0.03265426316469444
-0.3142282733234296
0.050929486378962
0.06073105383931221
0.06056665324403809
-0.016756432073385952
-0.009966566001970989
-0.08460982989087995
-0.10416589365078721
-0.18848774384918698
-0.17159676170634697
-0.11519073869047958
0.15225126904759634
0.15960647738093314
0.145537454563474
0.11696948333330681
0.0918036698412763
0.06858926507936758
0.06754013392857416
0.01911589781745704
9.321924605387721e-05
0.01262325396825048
0.05212065476189309
0.05204374503968978
0.06058006944444827
0.08564767857144062
0.0610454811507779
0.06641617559520085
0.02671547619046777
0.005878164682528109
-0.009274285714312214
-0.006669206349194212
-0.005774910714279713
0.027330044642852158
0.037525451388880526
0.060850808531732525
0.05606206190479668
0.0934636492063845
0.1351933912698513
0.06809554404761542
-0.03730629126981455
0.02180810357140217
0.053014636309491436
-0.10515859543654926
0.15102084662698445
0.06423612440474358
-0.030694793253978503
-0.037641583928532896
-0.02458519007932125
0.009524343650809897
0.019849394841216395
0.05911606150791471
0.035391552579383756
0.00289960277777368
-0.11835421666668111
-0.2161664041666711
-0.340900531150794
-0.400805293055555
-0.5296529319444687
-0.8591754815475738
-0.6859933033730243
0.6979530154761946
0.5114977724206113
0.3526196027777573
0.26262033690476017
0.09922185972224895
-0.07246254007937836
-0.13361492063490488
0.11229510376982432
0.23421773769840826
0.1943635015873042
0.20311127440474763
0.3503905055555734
0.4647587297618969
0.5903272416666709
-0.35672681031746123
-0.5350498069444356
-0.4807959130952426
-0.5842457990079453
-0.6374514339285682
-0.6198582394841452
-0.5677553476190482
-0.4798597945744376
-0.2886472052887328
-0.07723171917761817
0.15377330562398583
0.4086905625683883
0.4066659345922474
0.13388124709222637
-0.08663691656403216
-0.3632263088303773
-0.7344667106161182
-0.7710126977192644
-0.34333234057640283
-0.18443295565580797
-0.9948948604177019
-1.6259441382638968
-2.9969720805456674
-1.8864615787400822
-1.2954798079067587
-0.5449051799305238
0.06380256312500165
0.5774677416964451
0.7447841851488093
0.34103752480159244
0.005615724206350592
0.44650068948413946
1.7102852083333318
2.4062693105158672
2.886268571428566
3.3452495982142807
4.055718933531729
-3.52104257936508
-0.062498576388875904
0.5420631795634989
1.0499198065476136
1.554469950396829
0.08420520337301696
-1.3474334325396882
-1.3964408730158908
-1.2404320585317166
-0.9394446726190537
-0.48482054563493193
-0.03651768353176266
0.21083473214284965
0.1915088144841235
0.05931767361110474
-0.026818060515864772
0.02457073908731644
0.04656562996032676
-0.016912103174597348
-0.13069328869047325
-0.015644117063480678
0.05698810019843137
0.13917272321428698
0.07968403273807922
-0.09478786706349496
-0.1842316071428698
0.04448867063491946
0.07493402777776481
0.08755269345237338
0.056971101190477214
0.11703148313493017
0.11876792162701122
0.04068731646824375
0.07249639880951975
-0.13239561507934638
-0.16817100694442644
-0.25280231646825513
-0.11766323908729959
-0.0412759871031696
0.08672923115074838
0.07430894345240091
0.06696205853172899
0.07673070932537485
0.06552608630948953
0.02409103174606031
-0.012496274801577556
-0.028759310515873437
-0.0350206200396741
-0.07654489087298089
-0.039414920634911255
-0.018809374999975148
0.06519626984127314
0.0430375049603029
-0.016941557539666974
0.029254935515865554
0.05555133928571365
0.0022317410714407515
0.15053868055554886
0.07089625992065152
0.04592110119045856
0.061634737103155146
0.008144464285720687
-0.014294796626984407
-0.05916847222223964
-0.0680810565476122
-0.017643878968250704
0.022491904761906767
0.009719558531749328
0.06001796626982525
0.07570961309522772
0.01758711805556601
-0.019778998015894445
0.061803898809522195
-0.04102885683761315
-0.11205974358974657
-0.1173356196581068
-0.1173356196581139
-0.11733561965812811
-0.11733561965812811
-0.11733561965812811
